digraph Tree {
node [shape=box, style="filled, rounded", color="black", fontname="helvetica"] ;
edge [fontname="helvetica"] ;
0 [label="carat <= 0.68\nsquared_error = 16143469.22\nsamples = 30731\nvalue = 3955.17", fillcolor="#f9e3d2"] ;
1 [label="y <= -0.13\nsquared_error = 1247934.03\nsamples = 19852\nvalue = 1634.39", fillcolor="#fdf7f2"] ;
0 -> 1 [labeldistance=2.5, labelangle=45, headlabel="True"] ;
2 [label="x <= -0.67\nsquared_error = 267181.21\nsamples = 14206\nvalue = 1055.85", fillcolor="#fefcfa"] ;
1 -> 2 ;
3 [label="carat <= -1.0\nsquared_error = 56023.89\nsamples = 10009\nvalue = 790.81", fillcolor="#fffefe"] ;
2 -> 3 ;
4 [label="squared_error = 34457.2\nsamples = 6824\nvalue = 705.44", fillcolor="#ffffff"] ;
3 -> 4 ;
5 [label="squared_error = 53202.44\nsamples = 3185\nvalue = 973.5", fillcolor="#fffdfb"] ;
3 -> 5 ;
6 [label="clarity <= 0.88\nsquared_error = 197872.9\nsamples = 4197\nvalue = 1695.8", fillcolor="#fdf6f1"] ;
2 -> 6 ;
7 [label="squared_error = 111553.03\nsamples = 3338\nvalue = 1568.14", fillcolor="#fdf7f3"] ;
6 -> 7 ;
8 [label="squared_error = 222812.37\nsamples = 859\nvalue = 2194.24", fillcolor="#fcf2eb"] ;
6 -> 8 ;
9 [label="carat <= 0.49\nsquared_error = 769227.83\nsamples = 5646\nvalue = 3081.81", fillcolor="#fbeade"] ;
1 -> 9 ;
10 [label="clarity <= -0.33\nsquared_error = 413319.87\nsamples = 4046\nvalue = 2735.12", fillcolor="#fbede3"] ;
9 -> 10 ;
11 [label="squared_error = 227934.28\nsamples = 2015\nvalue = 2475.37", fillcolor="#fcf0e7"] ;
10 -> 11 ;
12 [label="squared_error = 463398.16\nsamples = 2031\nvalue = 3000.05", fillcolor="#fbebdf"] ;
10 -> 12 ;
13 [label="clarity <= -0.94\nsquared_error = 610867.94\nsamples = 1600\nvalue = 3945.14", fillcolor="#f9e3d2"] ;
9 -> 13 ;
14 [label="squared_error = 340821.94\nsamples = 517\nvalue = 3437.59", fillcolor="#fae7d9"] ;
13 -> 14 ;
15 [label="squared_error = 558196.13\nsamples = 1083\nvalue = 4187.22", fillcolor="#f9e1cf"] ;
13 -> 15 ;
16 [label="y <= 1.29\nsquared_error = 15598736.62\nsamples = 10879\nvalue = 8181.61", fillcolor="#f2be98"] ;
0 -> 16 [labeldistance=2.5, labelangle=-45, headlabel="False"] ;
17 [label="clarity <= 0.27\nsquared_error = 4816583.84\nsamples = 7363\nvalue = 6157.05", fillcolor="#f5cfb4"] ;
16 -> 17 ;
18 [label="clarity <= -0.33\nsquared_error = 2161818.66\nsamples = 5622\nvalue = 5417.3", fillcolor="#f6d6be"] ;
17 -> 18 ;
19 [label="squared_error = 1366905.45\nsamples = 4090\nvalue = 4976.74", fillcolor="#f7dac4"] ;
18 -> 19 ;
20 [label="squared_error = 2380717.97\nsamples = 1532\nvalue = 6595.22", fillcolor="#f4ccae"] ;
18 -> 20 ;
21 [label="color <= -0.53\nsquared_error = 5873813.6\nsamples = 1741\nvalue = 8567.4", fillcolor="#f1ba93"] ;
17 -> 21 ;
22 [label="squared_error = 1778263.83\nsamples = 435\nvalue = 6294.04", fillcolor="#f5ceb2"] ;
21 -> 22 ;
23 [label="squared_error = 5011209.59\nsamples = 1306\nvalue = 9289.75", fillcolor="#f0b489"] ;
21 -> 23 ;
24 [label="y <= 1.76\nsquared_error = 11668843.55\nsamples = 3516\nvalue = 12411.74", fillcolor="#ea995e"] ;
16 -> 24 ;
25 [label="clarity <= -0.33\nsquared_error = 8745099.81\nsamples = 2221\nvalue = 10985.5", fillcolor="#eca572"] ;
24 -> 25 ;
26 [label="squared_error = 4732782.44\nsamples = 1131\nvalue = 9525.04", fillcolor="#efb286"] ;
25 -> 26 ;
27 [label="squared_error = 8479312.6\nsamples = 1090\nvalue = 12453.42", fillcolor="#ea985e"] ;
25 -> 27 ;
28 [label="clarity <= -1.55\nsquared_error = 7109041.86\nsamples = 1295\nvalue = 14881.62", fillcolor="#e5833c"] ;
24 -> 28 ;
29 [label="squared_error = 7238036.65\nsamples = 47\nvalue = 8627.68", fillcolor="#f1ba92"] ;
28 -> 29 ;
30 [label="squared_error = 5575801.8\nsamples = 1248\nvalue = 15117.14", fillcolor="#e58139"] ;
28 -> 30 ;
}